<?xml version="1.0"?>
<opencv_storage>
<cascade>
  <stageType>BOOST</stageType>
  <featureType>HAAR</featureType>
  <height>20</height>
  <width>30</width>
  <stageParams>
    <boostType>GAB</boostType>
    <minHitRate>9.9500000476837158e-001</minHitRate>
    <maxFalseAlarm>5.0000000000000000e-001</maxFalseAlarm>
    <weightTrimRate>9.4999999999999996e-001</weightTrimRate>
    <maxDepth>1</maxDepth>
    <maxWeakCount>100</maxWeakCount></stageParams>
  <featureParams>
    <maxCatCount>0</maxCatCount>
    <featSize>1</featSize>
    <mode>ALL</mode></featureParams>
  <stageNum>16</stageNum>
  <stages>
    <!-- stage 0 -->
    <_>
      <maxWeakCount>9</maxWeakCount>
      <stageThreshold>-1.5502185821533203e+000</stageThreshold>
      <weakClassifiers>
        <_>
          <internalNodes>
            0 -1 38 -5.7981073856353760e-002</internalNodes>
          <leafValues>
            9.0804594755172729e-001 -5.0528544187545776e-001</leafValues></_>
        <_>
          <internalNodes>
            0 -1 0 1.1427643476054072e-003</internalNodes>
          <leafValues>
            2.5831532478332520e-001 -8.5876077413558960e-001</leafValues></_>
        <_>
          <internalNodes>
            0 -1 30 -3.6208089441061020e-002</internalNodes>
          <leafValues>
            7.1104115247726440e-001 -3.2649710774421692e-001</leafValues></_>
        <_>
          <internalNodes>
            0 -1 0 -8.0170505680143833e-004</internalNodes>
          <leafValues>
            -7.5283902883529663e-001 2.9447683691978455e-001</leafValues></_>
        <_>
          <internalNodes>
            0 -1 24 -2.4209659546613693e-002</internalNodes>
          <leafValues>
            9.1997724771499634e-001 -2.4764966964721680e-001</leafValues></_>
        <_>
          <internalNodes>
            0 -1 1 1.1441825330257416e-001</internalNodes>
          <leafValues>
            3.2302507758140564e-001 -6.2149387598037720e-001</leafValues></_>
        <_>
          <internalNodes>
            0 -1 125 -1.5331981703639030e-002</internalNodes>
          <leafValues>
            6.7733711004257202e-001 -2.7647092938423157e-001</leafValues></_>
        <_>
          <internalNodes>
            0 -1 124 1.3784510083496571e-002</internalNodes>
          <leafValues>
            -1.9974775612354279e-001 8.1658631563186646e-001</leafValues></_>
        <_>
          <internalNodes>
            0 -1 159 6.3278188463300467e-004</internalNodes>
          <leafValues>
            2.3740200698375702e-001 -7.5979387760162354e-001</leafValues></_></weakClassifiers></_>
    <!-- stage 1 -->
    <_>
      <maxWeakCount>8</maxWeakCount>
      <stageThreshold>-8.7977820634841919e-001</stageThreshold>
      <weakClassifiers>
        <_>
          <internalNodes>
            0 -1 95 -3.3399827778339386e-002</internalNodes>
          <leafValues>
            6.0368663072586060e-001 -4.9944630265235901e-001</leafValues></_>
        <_>
          <internalNodes>
            0 -1 16 -1.2884688377380371e-001</internalNodes>
          <leafValues>
            -9.9293202161788940e-001 1.6413532197475433e-001</leafValues></_>
        <_>
          <internalNodes>
            0 -1 73 1.4420682564377785e-002</internalNodes>
          <leafValues>
            -2.8321465849876404e-001 6.7690473794937134e-001</leafValues></_>
        <_>
          <internalNodes>
            0 -1 51 -3.9674915373325348e-002</internalNodes>
          <leafValues>
            6.7960500717163086e-001 -2.1262533962726593e-001</leafValues></_>
        <_>
          <internalNodes>
            0 -1 50 6.6628190688788891e-004</internalNodes>
          <leafValues>
            2.7980545163154602e-001 -6.5007412433624268e-001</leafValues></_>
        <_>
          <internalNodes>
            0 -1 156 -2.2594053298234940e-003</internalNodes>
          <leafValues>
            5.2030974626541138e-001 -3.5011792182922363e-001</leafValues></_>
        <_>
          <internalNodes>
            0 -1 37 1.5585644170641899e-002</internalNodes>
          <leafValues>
            -1.4965564012527466e-001 9.2037111520767212e-001</leafValues></_>
        <_>
          <internalNodes>
            0 -1 109 1.8507349886931479e-004</internalNodes>
          <leafValues>
            2.7773937582969666e-001 -6.9908678531646729e-001</leafValues></_></weakClassifiers></_>
    <!-- stage 2 -->
    <_>
      <maxWeakCount>11</maxWeakCount>
      <stageThreshold>-1.2722821235656738e+000</stageThreshold>
      <weakClassifiers>
        <_>
          <internalNodes>
            0 -1 129 -1.0690351016819477e-002</internalNodes>
          <leafValues>
            5.5348837375640869e-001 -4.8508286476135254e-001</leafValues></_>
        <_>
          <internalNodes>
            0 -1 132 1.7402449622750282e-002</internalNodes>
          <leafValues>
            -2.1501040458679199e-001 8.6438250541687012e-001</leafValues></_>
        <_>
          <internalNodes>
            0 -1 138 7.4529787525534630e-004</internalNodes>
          <leafValues>
            2.2985683381557465e-001 -7.0348370075225830e-001</leafValues></_>
        <_>
          <internalNodes>
            0 -1 126 -1.5132617205381393e-002</internalNodes>
          <leafValues>
            7.7437841892242432e-001 -2.1539916098117828e-001</leafValues></_>
        <_>
          <internalNodes>
            0 -1 92 1.0247323662042618e-003</internalNodes>
          <leafValues>
            2.3270498216152191e-001 -6.5919858217239380e-001</leafValues></_>
        <_>
          <internalNodes>
            0 -1 147 1.3154814019799232e-002</internalNodes>
          <leafValues>
            -2.1933132410049438e-001 7.6833635568618774e-001</leafValues></_>
        <_>
          <internalNodes>
            0 -1 145 -2.3182756267488003e-003</internalNodes>
          <leafValues>
            5.5750638246536255e-001 -2.3281270265579224e-001</leafValues></_>
        <_>
          <internalNodes>
            0 -1 45 -8.1442082300782204e-003</internalNodes>
          <leafValues>
            6.4614254236221313e-001 -1.9686608016490936e-001</leafValues></_>
        <_>
          <internalNodes>
            0 -1 118 -3.4579355269670486e-003</internalNodes>
          <leafValues>
            6.4641952514648438e-001 -1.9204643368721008e-001</leafValues></_>
        <_>
          <internalNodes>
            0 -1 52 1.0776601731777191e-002</internalNodes>
          <leafValues>
            -1.3330517709255219e-001 8.4916359186172485e-001</leafValues></_>
        <_>
          <internalNodes>
            0 -1 152 -1.2000850401818752e-003</internalNodes>
          <leafValues>
            -6.8799847364425659e-001 2.2960272431373596e-001</leafValues></_></weakClassifiers></_>
    <!-- stage 3 -->
    <_>
      <maxWeakCount>10</maxWeakCount>
      <stageThreshold>-1.1987977027893066e+000</stageThreshold>
      <weakClassifiers>
        <_>
          <internalNodes>
            0 -1 178 1.0115884244441986e-002</internalNodes>
          <leafValues>
            -4.7577092051506042e-001 5.2830189466476440e-001</leafValues></_>
        <_>
          <internalNodes>
            0 -1 131 -5.6784180924296379e-003</internalNodes>
          <leafValues>
            6.2544101476669312e-001 -3.1965821981430054e-001</leafValues></_>
        <_>
          <internalNodes>
            0 -1 4 -1.0713359341025352e-002</internalNodes>
          <leafValues>
            -6.8275564908981323e-001 2.2665478289127350e-001</leafValues></_>
        <_>
          <internalNodes>
            0 -1 130 2.1935845725238323e-003</internalNodes>
          <leafValues>
            -2.5003132224082947e-001 5.3576165437698364e-001</leafValues></_>
        <_>
          <internalNodes>
            0 -1 142 -3.5962932743132114e-003</internalNodes>
          <leafValues>
            5.4437810182571411e-001 -2.4633301794528961e-001</leafValues></_>
        <_>
          <internalNodes>
            0 -1 137 -2.2775270044803619e-003</internalNodes>
          <leafValues>
            -6.0856270790100098e-001 2.6424193382263184e-001</leafValues></_>
        <_>
          <internalNodes>
            0 -1 48 -5.3569197189062834e-004</internalNodes>
          <leafValues>
            4.0817177295684814e-001 -3.4900930523872375e-001</leafValues></_>
        <_>
          <internalNodes>
            0 -1 160 1.1676021385937929e-003</internalNodes>
          <leafValues>
            2.0499567687511444e-001 -8.5186135768890381e-001</leafValues></_>
        <_>
          <internalNodes>
            0 -1 180 -1.7976339440792799e-003</internalNodes>
          <leafValues>
            6.4544248580932617e-001 -2.6083305478096008e-001</leafValues></_>
        <_>
          <internalNodes>
            0 -1 5 1.7666938900947571e-001</internalNodes>
          <leafValues>
            1.8171951174736023e-001 -8.1945419311523438e-001</leafValues></_></weakClassifiers></_>
    <!-- stage 4 -->
    <_>
      <maxWeakCount>5</maxWeakCount>
      <stageThreshold>-1.1905326843261719e+000</stageThreshold>
      <weakClassifiers>
        <_>
          <internalNodes>
            0 -1 87 -1.3208198361098766e-003</internalNodes>
          <leafValues>
            8.0645161867141724e-001 -6.4803802967071533e-001</leafValues></_>
        <_>
          <internalNodes>
            0 -1 26 -9.5333036733791232e-004</internalNodes>
          <leafValues>
            8.2878673076629639e-001 -4.9321201443672180e-001</leafValues></_>
        <_>
          <internalNodes>
            0 -1 47 2.6416140608489513e-003</internalNodes>
          <leafValues>
            -4.0685549378395081e-001 7.9631060361862183e-001</leafValues></_>
        <_>
          <internalNodes>
            0 -1 97 -7.6753052417188883e-004</internalNodes>
          <leafValues>
            6.8199366331100464e-001 -3.9471241831779480e-001</leafValues></_>
        <_>
          <internalNodes>
            0 -1 72 1.4635893749073148e-003</internalNodes>
          <leafValues>
            -3.2442077994346619e-001 8.5015326738357544e-001</leafValues></_></weakClassifiers></_>
    <!-- stage 5 -->
    <_>
      <maxWeakCount>9</maxWeakCount>
      <stageThreshold>-8.9441525936126709e-001</stageThreshold>
      <weakClassifiers>
        <_>
          <internalNodes>
            0 -1 173 -2.4483650922775269e-002</internalNodes>
          <leafValues>
            -8.7733334302902222e-001 1.2080537155270576e-002</leafValues></_>
        <_>
          <internalNodes>
            0 -1 155 -1.6172058880329132e-002</internalNodes>
          <leafValues>
            6.7805588245391846e-001 -2.8463688492774963e-001</leafValues></_>
        <_>
          <internalNodes>
            0 -1 117 -2.4733472615480423e-002</internalNodes>
          <leafValues>
            6.5323227643966675e-001 -2.0782990753650665e-001</leafValues></_>
        <_>
          <internalNodes>
            0 -1 3 -5.7450287044048309e-002</internalNodes>
          <leafValues>
            5.6931394338607788e-001 -2.2811380028724670e-001</leafValues></_>
        <_>
          <internalNodes>
            0 -1 103 3.5181436687707901e-003</internalNodes>
          <leafValues>
            -2.7624222636222839e-001 5.2940195798873901e-001</leafValues></_>
        <_>
          <internalNodes>
            0 -1 28 2.6489626616239548e-002</internalNodes>
          <leafValues>
            -1.9913685321807861e-001 6.9161891937255859e-001</leafValues></_>
        <_>
          <internalNodes>
            0 -1 79 -2.8233899502083659e-004</internalNodes>
          <leafValues>
            -7.7172875404357910e-001 1.9012522697448730e-001</leafValues></_>
        <_>
          <internalNodes>
            0 -1 78 4.3884417973458767e-003</internalNodes>
          <leafValues>
            -2.6505744457244873e-001 5.6433290243148804e-001</leafValues></_>
        <_>
          <internalNodes>
            0 -1 77 -6.5372809767723083e-003</internalNodes>
          <leafValues>
            5.2882236242294312e-001 -2.7339538931846619e-001</leafValues></_></weakClassifiers></_>
    <!-- stage 6 -->
    <_>
      <maxWeakCount>11</maxWeakCount>
      <stageThreshold>-1.2643557786941528e+000</stageThreshold>
      <weakClassifiers>
        <_>
          <internalNodes>
            0 -1 10 3.2663412392139435e-002</internalNodes>
          <leafValues>
            -3.9173227548599243e-001 7.5000000000000000e-001</leafValues></_>
        <_>
          <internalNodes>
            0 -1 80 2.3489166051149368e-003</internalNodes>
          <leafValues>
            1.2388199567794800e-001 -8.9225172996520996e-001</leafValues></_>
        <_>
          <internalNodes>
            0 -1 157 -1.1409565559006296e-005</internalNodes>
          <leafValues>
            4.1785287857055664e-001 -3.0973535776138306e-001</leafValues></_>
        <_>
          <internalNodes>
            0 -1 80 -2.0756614394485950e-003</internalNodes>
          <leafValues>
            -7.8225684165954590e-001 2.1059879660606384e-001</leafValues></_>
        <_>
          <internalNodes>
            0 -1 150 -3.1159431091509759e-004</internalNodes>
          <leafValues>
            4.0401229262351990e-001 -3.6797514557838440e-001</leafValues></_>
        <_>
          <internalNodes>
            0 -1 146 4.1955215856432915e-003</internalNodes>
          <leafValues>
            -2.5611561536788940e-001 6.2411105632781982e-001</leafValues></_>
        <_>
          <internalNodes>
            0 -1 136 6.5495516173541546e-004</internalNodes>
          <leafValues>
            1.5815626084804535e-001 -7.7547216415405273e-001</leafValues></_>
        <_>
          <internalNodes>
            0 -1 76 -1.1552383191883564e-002</internalNodes>
          <leafValues>
            6.5287071466445923e-001 -1.9806097447872162e-001</leafValues></_>
        <_>
          <internalNodes>
            0 -1 61 4.0050938725471497e-002</internalNodes>
          <leafValues>
            -1.7479790747165680e-001 6.3961315155029297e-001</leafValues></_>
        <_>
          <internalNodes>
            0 -1 81 -2.9769089072942734e-002</internalNodes>
          <leafValues>
            5.7636439800262451e-001 -1.7636050283908844e-001</leafValues></_>
        <_>
          <internalNodes>
            0 -1 136 -1.7720456235110760e-003</internalNodes>
          <leafValues>
            -7.9192572832107544e-001 1.5382742881774902e-001</leafValues></_></weakClassifiers></_>
    <!-- stage 7 -->
    <_>
      <maxWeakCount>6</maxWeakCount>
      <stageThreshold>-9.7945338487625122e-001</stageThreshold>
      <weakClassifiers>
        <_>
          <internalNodes>
            0 -1 176 7.4212718755006790e-003</internalNodes>
          <leafValues>
            -5.1787775754928589e-001 5.0988143682479858e-001</leafValues></_>
        <_>
          <internalNodes>
            0 -1 175 -4.1767358779907227e-003</internalNodes>
          <leafValues>
            5.8567988872528076e-001 -3.1757098436355591e-001</leafValues></_>
        <_>
          <internalNodes>
            0 -1 162 -2.3915550264064223e-004</internalNodes>
          <leafValues>
            4.7814881801605225e-001 -2.7983894944190979e-001</leafValues></_>
        <_>
          <internalNodes>
            0 -1 154 -2.4823995772749186e-003</internalNodes>
          <leafValues>
            5.2382934093475342e-001 -2.7798193693161011e-001</leafValues></_>
        <_>
          <internalNodes>
            0 -1 64 -1.0585257411003113e-001</internalNodes>
          <leafValues>
            -7.6987409591674805e-001 1.8526932597160339e-001</leafValues></_>
        <_>
          <internalNodes>
            0 -1 122 8.2099135033786297e-004</internalNodes>
          <leafValues>
            -3.3754208683967590e-001 4.2570257186889648e-001</leafValues></_></weakClassifiers></_>
    <!-- stage 8 -->
    <_>
      <maxWeakCount>13</maxWeakCount>
      <stageThreshold>-1.1802530288696289e+000</stageThreshold>
      <weakClassifiers>
        <_>
          <internalNodes>
            0 -1 32 -1.2814940884709358e-002</internalNodes>
          <leafValues>
            5.2095806598663330e-001 -4.2707240581512451e-001</leafValues></_>
        <_>
          <internalNodes>
            0 -1 100 3.7534952163696289e-002</internalNodes>
          <leafValues>
            1.7546169459819794e-001 -7.2018772363662720e-001</leafValues></_>
        <_>
          <internalNodes>
            0 -1 43 -3.4842842724174261e-003</internalNodes>
          <leafValues>
            4.5784178376197815e-001 -2.6911994814872742e-001</leafValues></_>
        <_>
          <internalNodes>
            0 -1 34 1.8002741853706539e-005</internalNodes>
          <leafValues>
            -2.2970283031463623e-001 4.3087819218635559e-001</leafValues></_>
        <_>
          <internalNodes>
            0 -1 14 -2.3155701346695423e-003</internalNodes>
          <leafValues>
            -5.4565554857254028e-001 2.0798553526401520e-001</leafValues></_>
        <_>
          <internalNodes>
            0 -1 165 3.3248732506763190e-005</internalNodes>
          <leafValues>
            -2.9529145359992981e-001 3.5345333814620972e-001</leafValues></_>
        <_>
          <internalNodes>
            0 -1 46 -6.9711841642856598e-003</internalNodes>
          <leafValues>
            4.0375581383705139e-001 -2.4430246651172638e-001</leafValues></_>
        <_>
          <internalNodes>
            0 -1 140 3.6329345311969519e-004</internalNodes>
          <leafValues>
            -2.6208326220512390e-001 3.9617720246315002e-001</leafValues></_>
        <_>
          <internalNodes>
            0 -1 9 5.8859474956989288e-003</internalNodes>
          <leafValues>
            1.4293839037418365e-001 -8.2222098112106323e-001</leafValues></_>
        <_>
          <internalNodes>
            0 -1 121 -1.1808903887867928e-002</internalNodes>
          <leafValues>
            4.6068441867828369e-001 -2.4868109822273254e-001</leafValues></_>
        <_>
          <internalNodes>
            0 -1 66 2.6063284167321399e-005</internalNodes>
          <leafValues>
            -2.5702723860740662e-001 3.8550174236297607e-001</leafValues></_>
        <_>
          <internalNodes>
            0 -1 19 -1.2896215775981545e-003</internalNodes>
          <leafValues>
            -8.7462168931961060e-001 1.0243979841470718e-001</leafValues></_>
        <_>
          <internalNodes>
            0 -1 55 -4.7730274498462677e-002</internalNodes>
          <leafValues>
            -7.5659513473510742e-001 9.8087877035140991e-002</leafValues></_></weakClassifiers></_>
    <!-- stage 9 -->
    <_>
      <maxWeakCount>12</maxWeakCount>
      <stageThreshold>-1.2958078384399414e+000</stageThreshold>
      <weakClassifiers>
        <_>
          <internalNodes>
            0 -1 41 -1.4216205105185509e-002</internalNodes>
          <leafValues>
            4.4751381874084473e-001 -4.2705005407333374e-001</leafValues></_>
        <_>
          <internalNodes>
            0 -1 25 -1.1867517605423927e-002</internalNodes>
          <leafValues>
            7.0882713794708252e-001 -1.7779608070850372e-001</leafValues></_>
        <_>
          <internalNodes>
            0 -1 12 -2.1397139062173665e-004</internalNodes>
          <leafValues>
            -6.8296247720718384e-001 1.7528998851776123e-001</leafValues></_>
        <_>
          <internalNodes>
            0 -1 70 -1.6606526332907379e-004</internalNodes>
          <leafValues>
            -6.5777516365051270e-001 1.3732537627220154e-001</leafValues></_>
        <_>
          <internalNodes>
            0 -1 89 -4.4355788268148899e-003</internalNodes>
          <leafValues>
            5.9561431407928467e-001 -1.8223135173320770e-001</leafValues></_>
        <_>
          <internalNodes>
            0 -1 67 -3.2356334850192070e-003</internalNodes>
          <leafValues>
            4.4144567847251892e-001 -2.2203792631626129e-001</leafValues></_>
        <_>
          <internalNodes>
            0 -1 56 -2.3566228337585926e-003</internalNodes>
          <leafValues>
            4.0389415621757507e-001 -2.8825384378433228e-001</leafValues></_>
        <_>
          <internalNodes>
            0 -1 2 -1.1314434558153152e-001</internalNodes>
          <leafValues>
            6.2791424989700317e-001 -1.8359051644802094e-001</leafValues></_>
        <_>
          <internalNodes>
            0 -1 110 -3.6035032826475799e-004</internalNodes>
          <leafValues>
            -6.0312426090240479e-001 2.0169563591480255e-001</leafValues></_>
        <_>
          <internalNodes>
            0 -1 170 6.1489837244153023e-003</internalNodes>
          <leafValues>
            -1.8887320160865784e-001 5.8505034446716309e-001</leafValues></_>
        <_>
          <internalNodes>
            0 -1 110 5.4664467461407185e-004</internalNodes>
          <leafValues>
            1.5829752385616302e-001 -7.4433898925781250e-001</leafValues></_>
        <_>
          <internalNodes>
            0 -1 93 -1.9578437786549330e-003</internalNodes>
          <leafValues>
            3.8388657569885254e-001 -2.9764005541801453e-001</leafValues></_></weakClassifiers></_>
    <!-- stage 10 -->
    <_>
      <maxWeakCount>13</maxWeakCount>
      <stageThreshold>-1.2372181415557861e+000</stageThreshold>
      <weakClassifiers>
        <_>
          <internalNodes>
            0 -1 82 -1.5324933920055628e-003</internalNodes>
          <leafValues>
            2.3602484166622162e-001 -4.9624061584472656e-001</leafValues></_>
        <_>
          <internalNodes>
            0 -1 88 -4.2304545640945435e-003</internalNodes>
          <leafValues>
            4.7527983784675598e-001 -2.5880801677703857e-001</leafValues></_>
        <_>
          <internalNodes>
            0 -1 86 1.3782170135527849e-003</internalNodes>
          <leafValues>
            -2.6093512773513794e-001 4.5708104968070984e-001</leafValues></_>
        <_>
          <internalNodes>
            0 -1 90 -2.9934625490568578e-004</internalNodes>
          <leafValues>
            3.2146704196929932e-001 -2.6721826195716858e-001</leafValues></_>
        <_>
          <internalNodes>
            0 -1 54 3.4891821444034576e-002</internalNodes>
          <leafValues>
            1.1855354160070419e-001 -8.3499008417129517e-001</leafValues></_>
        <_>
          <internalNodes>
            0 -1 107 2.2445507056545466e-004</internalNodes>
          <leafValues>
            -2.9750621318817139e-001 2.7510204911231995e-001</leafValues></_>
        <_>
          <internalNodes>
            0 -1 133 -8.0956593155860901e-003</internalNodes>
          <leafValues>
            4.6346032619476318e-001 -1.6551332175731659e-001</leafValues></_>
        <_>
          <internalNodes>
            0 -1 163 -3.6112815141677856e-002</internalNodes>
          <leafValues>
            5.2056670188903809e-001 -1.6627293825149536e-001</leafValues></_>
        <_>
          <internalNodes>
            0 -1 111 -8.7396288290619850e-003</internalNodes>
          <leafValues>
            5.1784181594848633e-001 -1.8422676622867584e-001</leafValues></_>
        <_>
          <internalNodes>
            0 -1 18 -6.5599603112787008e-004</internalNodes>
          <leafValues>
            -6.9842416048049927e-001 1.4265002310276031e-001</leafValues></_>
        <_>
          <internalNodes>
            0 -1 68 1.2731398455798626e-003</internalNodes>
          <leafValues>
            9.0962484478950500e-002 -7.5052374601364136e-001</leafValues></_>
        <_>
          <internalNodes>
            0 -1 36 -4.2778253555297852e-003</internalNodes>
          <leafValues>
            4.5888182520866394e-001 -1.8398693203926086e-001</leafValues></_>
        <_>
          <internalNodes>
            0 -1 6 4.2556766420602798e-003</internalNodes>
          <leafValues>
            1.1231343448162079e-001 -6.7158436775207520e-001</leafValues></_></weakClassifiers></_>
    <!-- stage 11 -->
    <_>
      <maxWeakCount>16</maxWeakCount>
      <stageThreshold>-1.2034088373184204e+000</stageThreshold>
      <weakClassifiers>
        <_>
          <internalNodes>
            0 -1 120 -1.5505674295127392e-002</internalNodes>
          <leafValues>
            4.7305390238761902e-001 -4.1867786645889282e-001</leafValues></_>
        <_>
          <internalNodes>
            0 -1 39 -7.4485102668404579e-003</internalNodes>
          <leafValues>
            3.7410363554954529e-001 -2.7701100707054138e-001</leafValues></_>
        <_>
          <internalNodes>
            0 -1 91 -1.7692778259515762e-002</internalNodes>
          <leafValues>
            5.1495194435119629e-001 -1.7858581244945526e-001</leafValues></_>
        <_>
          <internalNodes>
            0 -1 167 -7.0499593857675791e-004</internalNodes>
          <leafValues>
            3.6121898889541626e-001 -2.1644648909568787e-001</leafValues></_>
        <_>
          <internalNodes>
            0 -1 53 2.5309395790100098e-001</internalNodes>
          <leafValues>
            1.1244853585958481e-001 -7.3357588052749634e-001</leafValues></_>
        <_>
          <internalNodes>
            0 -1 71 -2.6541608385741711e-003</internalNodes>
          <leafValues>
            4.7392234206199646e-001 -1.6552203893661499e-001</leafValues></_>
        <_>
          <internalNodes>
            0 -1 42 -1.1947997845709324e-002</internalNodes>
          <leafValues>
            5.2968466281890869e-001 -1.4135606586933136e-001</leafValues></_>
        <_>
          <internalNodes>
            0 -1 63 -1.4182710647583008e-001</internalNodes>
          <leafValues>
            -7.3908156156539917e-001 9.9353060126304626e-002</leafValues></_>
        <_>
          <internalNodes>
            0 -1 172 -1.2246794067323208e-003</internalNodes>
          <leafValues>
            -6.9959336519241333e-001 1.0719905048608780e-001</leafValues></_>
        <_>
          <internalNodes>
            0 -1 123 -1.0199912823736668e-002</internalNodes>
          <leafValues>
            6.9332271814346313e-001 -1.2118802219629288e-001</leafValues></_>
        <_>
          <internalNodes>
            0 -1 22 6.8140816874802113e-003</internalNodes>
          <leafValues>
            1.0421968251466751e-001 -7.4441599845886230e-001</leafValues></_>
        <_>
          <internalNodes>
            0 -1 74 -3.7180041545070708e-004</internalNodes>
          <leafValues>
            2.7089253067970276e-001 -2.6703429222106934e-001</leafValues></_>
        <_>
          <internalNodes>
            0 -1 113 -2.5481744669377804e-003</internalNodes>
          <leafValues>
            2.7475735545158386e-001 -2.6180872321128845e-001</leafValues></_>
        <_>
          <internalNodes>
            0 -1 164 -9.4675244763493538e-003</internalNodes>
          <leafValues>
            7.1778798103332520e-001 -1.0624869167804718e-001</leafValues></_>
        <_>
          <internalNodes>
            0 -1 184 9.3584071146324277e-004</internalNodes>
          <leafValues>
            -1.6880391538143158e-001 4.6537667512893677e-001</leafValues></_>
        <_>
          <internalNodes>
            0 -1 13 3.2298699952661991e-003</internalNodes>
          <leafValues>
            1.1838834732770920e-001 -6.1650437116622925e-001</leafValues></_></weakClassifiers></_>
    <!-- stage 12 -->
    <_>
      <maxWeakCount>16</maxWeakCount>
      <stageThreshold>-1.1042046546936035e+000</stageThreshold>
      <weakClassifiers>
        <_>
          <internalNodes>
            0 -1 182 -1.5085312537848949e-002</internalNodes>
          <leafValues>
            5.7999998331069946e-001 -3.7058824300765991e-001</leafValues></_>
        <_>
          <internalNodes>
            0 -1 177 -2.2734466474503279e-003</internalNodes>
          <leafValues>
            3.0032601952552795e-001 -3.3697772026062012e-001</leafValues></_>
        <_>
          <internalNodes>
            0 -1 187 2.9030963778495789e-003</internalNodes>
          <leafValues>
            1.5256565809249878e-001 -8.1530326604843140e-001</leafValues></_>
        <_>
          <internalNodes>
            0 -1 168 -1.2816626578569412e-002</internalNodes>
          <leafValues>
            4.7188213467597961e-001 -1.7292305827140808e-001</leafValues></_>
        <_>
          <internalNodes>
            0 -1 98 -3.4743023570626974e-004</internalNodes>
          <leafValues>
            -6.6740334033966064e-001 1.0753252357244492e-001</leafValues></_>
        <_>
          <internalNodes>
            0 -1 115 -4.8508690670132637e-003</internalNodes>
          <leafValues>
            2.6957884430885315e-001 -2.6618209481239319e-001</leafValues></_>
        <_>
          <internalNodes>
            0 -1 135 1.7239702865481377e-003</internalNodes>
          <leafValues>
            8.9410796761512756e-002 -8.3562523126602173e-001</leafValues></_>
        <_>
          <internalNodes>
            0 -1 58 -2.5058877654373646e-003</internalNodes>
          <leafValues>
            4.8651540279388428e-001 -1.5443193912506104e-001</leafValues></_>
        <_>
          <internalNodes>
            0 -1 85 -3.4435320412740111e-004</internalNodes>
          <leafValues>
            4.1777744889259338e-001 -1.9434097409248352e-001</leafValues></_>
        <_>
          <internalNodes>
            0 -1 33 3.9749085903167725e-002</internalNodes>
          <leafValues>
            8.6957812309265137e-002 -9.2308080196380615e-001</leafValues></_>
        <_>
          <internalNodes>
            0 -1 84 -2.9463963583111763e-002</internalNodes>
          <leafValues>
            -6.6332679986953735e-001 1.0310715436935425e-001</leafValues></_>
        <_>
          <internalNodes>
            0 -1 23 -1.0073488578200340e-002</internalNodes>
          <leafValues>
            4.2500343918800354e-001 -1.8814170360565186e-001</leafValues></_>
        <_>
          <internalNodes>
            0 -1 105 -1.0254129301756620e-004</internalNodes>
          <leafValues>
            2.8745976090431213e-001 -2.4032944440841675e-001</leafValues></_>
        <_>
          <internalNodes>
            0 -1 59 3.7370061036199331e-003</internalNodes>
          <leafValues>
            -1.5465192496776581e-001 4.4162827730178833e-001</leafValues></_>
        <_>
          <internalNodes>
            0 -1 186 -2.2340186405926943e-003</internalNodes>
          <leafValues>
            -7.0861750841140747e-001 1.0813736915588379e-001</leafValues></_>
        <_>
          <internalNodes>
            0 -1 158 -1.1409565559006296e-005</internalNodes>
          <leafValues>
            2.5483930110931396e-001 -2.8546729683876038e-001</leafValues></_></weakClassifiers></_>
    <!-- stage 13 -->
    <_>
      <maxWeakCount>18</maxWeakCount>
      <stageThreshold>-1.2279611825942993e+000</stageThreshold>
      <weakClassifiers>
        <_>
          <internalNodes>
            0 -1 7 2.3845454677939415e-002</internalNodes>
          <leafValues>
            -4.0108108520507813e-001 2.6153847575187683e-001</leafValues></_>
        <_>
          <internalNodes>
            0 -1 190 5.7984195882454515e-004</internalNodes>
          <leafValues>
            1.1656457185745239e-001 -5.7582104206085205e-001</leafValues></_>
        <_>
          <internalNodes>
            0 -1 96 -3.6645040381699800e-004</internalNodes>
          <leafValues>
            -6.2220346927642822e-001 1.0355848073959351e-001</leafValues></_>
        <_>
          <internalNodes>
            0 -1 143 2.8954428853467107e-004</internalNodes>
          <leafValues>
            -2.0965097844600677e-001 3.2110536098480225e-001</leafValues></_>
        <_>
          <internalNodes>
            0 -1 20 -1.3097246410325170e-003</internalNodes>
          <leafValues>
            -5.8786022663116455e-001 1.4147689938545227e-001</leafValues></_>
        <_>
          <internalNodes>
            0 -1 134 -1.4654586557298899e-003</internalNodes>
          <leafValues>
            2.8458806872367859e-001 -2.3521269857883453e-001</leafValues></_>
        <_>
          <internalNodes>
            0 -1 139 4.8464192077517509e-003</internalNodes>
          <leafValues>
            -1.9031274318695068e-001 3.9601075649261475e-001</leafValues></_>
        <_>
          <internalNodes>
            0 -1 29 -2.0238986611366272e-001</internalNodes>
          <leafValues>
            5.5189561843872070e-001 -1.2652228772640228e-001</leafValues></_>
        <_>
          <internalNodes>
            0 -1 108 4.9184588715434074e-003</internalNodes>
          <leafValues>
            -1.5151694416999817e-001 4.5109274983406067e-001</leafValues></_>
        <_>
          <internalNodes>
            0 -1 191 6.8004860077053308e-004</internalNodes>
          <leafValues>
            1.4788511395454407e-001 -4.4381555914878845e-001</leafValues></_>
        <_>
          <internalNodes>
            0 -1 169 -1.5505293849855661e-003</internalNodes>
          <leafValues>
            3.1449389457702637e-001 -2.3818397521972656e-001</leafValues></_>
        <_>
          <internalNodes>
            0 -1 185 -9.9703501909971237e-003</internalNodes>
          <leafValues>
            -9.4200420379638672e-001 6.5515451133251190e-002</leafValues></_>
        <_>
          <internalNodes>
            0 -1 62 5.1093840738758445e-004</internalNodes>
          <leafValues>
            -2.2560927271842957e-001 2.8481075167655945e-001</leafValues></_>
        <_>
          <internalNodes>
            0 -1 149 -1.8354775384068489e-002</internalNodes>
          <leafValues>
            6.4683151245117188e-001 -1.0977615416049957e-001</leafValues></_>
        <_>
          <internalNodes>
            0 -1 99 2.3641601204872131e-002</internalNodes>
          <leafValues>
            1.1677914112806320e-001 -6.1013221740722656e-001</leafValues></_>
        <_>
          <internalNodes>
            0 -1 31 1.2564785778522491e-002</internalNodes>
          <leafValues>
            6.1931762844324112e-002 -8.7740677595138550e-001</leafValues></_>
        <_>
          <internalNodes>
            0 -1 151 -6.6025676205754280e-003</internalNodes>
          <leafValues>
            4.3053278326988220e-001 -1.7383883893489838e-001</leafValues></_>
        <_>
          <internalNodes>
            0 -1 8 -4.1305302875116467e-004</internalNodes>
          <leafValues>
            -5.9838551282882690e-001 1.1886843293905258e-001</leafValues></_></weakClassifiers></_>
    <!-- stage 14 -->
    <_>
      <maxWeakCount>20</maxWeakCount>
      <stageThreshold>-1.1792221069335937e+000</stageThreshold>
      <weakClassifiers>
        <_>
          <internalNodes>
            0 -1 183 1.3349317014217377e-002</internalNodes>
          <leafValues>
            -3.7832310795783997e-001 3.5211268067359924e-001</leafValues></_>
        <_>
          <internalNodes>
            0 -1 181 -2.0648473873734474e-003</internalNodes>
          <leafValues>
            3.2405036687850952e-001 -1.8715137243270874e-001</leafValues></_>
        <_>
          <internalNodes>
            0 -1 119 -1.0042735375463963e-002</internalNodes>
          <leafValues>
            5.1581966876983643e-001 -1.0201919078826904e-001</leafValues></_>
        <_>
          <internalNodes>
            0 -1 65 1.8275618553161621e-002</internalNodes>
          <leafValues>
            8.1723481416702271e-002 -7.1368217468261719e-001</leafValues></_>
        <_>
          <internalNodes>
            0 -1 49 2.5324178859591484e-003</internalNodes>
          <leafValues>
            1.1154273897409439e-001 -5.9928661584854126e-001</leafValues></_>
        <_>
          <internalNodes>
            0 -1 166 1.2066230177879333e-002</internalNodes>
          <leafValues>
            -1.2275898456573486e-001 4.8167499899864197e-001</leafValues></_>
        <_>
          <internalNodes>
            0 -1 60 3.4591567236930132e-003</internalNodes>
          <leafValues>
            -1.3078102469444275e-001 4.1166529059410095e-001</leafValues></_>
        <_>
          <internalNodes>
            0 -1 104 3.7718962877988815e-002</internalNodes>
          <leafValues>
            6.1043988913297653e-002 -7.8897559642791748e-001</leafValues></_>
        <_>
          <internalNodes>
            0 -1 153 2.8120044618844986e-002</internalNodes>
          <leafValues>
            7.5678817927837372e-002 -5.9802633523941040e-001</leafValues></_>
        <_>
          <internalNodes>
            0 -1 21 -5.4258934687823057e-004</internalNodes>
          <leafValues>
            -7.9143452644348145e-001 7.0241563022136688e-002</leafValues></_>
        <_>
          <internalNodes>
            0 -1 102 -1.2449917849153280e-003</internalNodes>
          <leafValues>
            3.0240777134895325e-001 -2.0054350793361664e-001</leafValues></_>
        <_>
          <internalNodes>
            0 -1 128 5.0070369616150856e-003</internalNodes>
          <leafValues>
            -1.9745270907878876e-001 2.9399549961090088e-001</leafValues></_>
        <_>
          <internalNodes>
            0 -1 69 -3.4830300137400627e-004</internalNodes>
          <leafValues>
            2.8019970655441284e-001 -2.2588779032230377e-001</leafValues></_>
        <_>
          <internalNodes>
            0 -1 106 1.7922051483765244e-004</internalNodes>
          <leafValues>
            1.4599360525608063e-001 -4.4318413734436035e-001</leafValues></_>
        <_>
          <internalNodes>
            0 -1 144 -2.1923668682575226e-003</internalNodes>
          <leafValues>
            4.1991102695465088e-001 -1.8319207429885864e-001</leafValues></_>
        <_>
          <internalNodes>
            0 -1 141 2.5258683599531651e-003</internalNodes>
          <leafValues>
            -1.9028009474277496e-001 3.4974473714828491e-001</leafValues></_>
        <_>
          <internalNodes>
            0 -1 116 -9.2190951108932495e-003</internalNodes>
          <leafValues>
            2.9484730958938599e-001 -2.1186222136020660e-001</leafValues></_>
        <_>
          <internalNodes>
            0 -1 98 1.3610284077003598e-004</internalNodes>
          <leafValues>
            1.0214852541685104e-001 -6.0148173570632935e-001</leafValues></_>
        <_>
          <internalNodes>
            0 -1 189 2.8593100141733885e-003</internalNodes>
          <leafValues>
            9.2912413179874420e-002 -5.8277338743209839e-001</leafValues></_>
        <_>
          <internalNodes>
            0 -1 40 -1.7355695599690080e-003</internalNodes>
          <leafValues>
            3.0747440457344055e-001 -2.0420631766319275e-001</leafValues></_></weakClassifiers></_>
    <!-- stage 15 -->
    <_>
      <maxWeakCount>20</maxWeakCount>
      <stageThreshold>-1.0055186748504639e+000</stageThreshold>
      <weakClassifiers>
        <_>
          <internalNodes>
            0 -1 114 9.3212313950061798e-003</internalNodes>
          <leafValues>
            -3.7114426493644714e-001 4.6086955070495605e-001</leafValues></_>
        <_>
          <internalNodes>
            0 -1 75 2.4552126415073872e-003</internalNodes>
          <leafValues>
            4.6496439725160599e-002 -8.9252960681915283e-001</leafValues></_>
        <_>
          <internalNodes>
            0 -1 35 -3.9143916219472885e-003</internalNodes>
          <leafValues>
            3.3765050768852234e-001 -1.5324312448501587e-001</leafValues></_>
        <_>
          <internalNodes>
            0 -1 127 -1.7564482986927032e-003</internalNodes>
          <leafValues>
            -8.4292334318161011e-001 5.4950796067714691e-002</leafValues></_>
        <_>
          <internalNodes>
            0 -1 94 -1.2636130675673485e-002</internalNodes>
          <leafValues>
            -5.8378469944000244e-001 8.6623236536979675e-002</leafValues></_>
        <_>
          <internalNodes>
            0 -1 161 -3.6257684230804443e-002</internalNodes>
          <leafValues>
            -8.4260571002960205e-001 6.1533082276582718e-002</leafValues></_>
        <_>
          <internalNodes>
            0 -1 174 -3.8496498018503189e-002</internalNodes>
          <leafValues>
            5.6811130046844482e-001 -1.0708465427160263e-001</leafValues></_>
        <_>
          <internalNodes>
            0 -1 17 -3.4767948091030121e-004</internalNodes>
          <leafValues>
            -6.6227394342422485e-001 9.2278048396110535e-002</leafValues></_>
        <_>
          <internalNodes>
            0 -1 15 -1.2707456946372986e-001</internalNodes>
          <leafValues>
            -7.1821290254592896e-001 5.6825436651706696e-002</leafValues></_>
        <_>
          <internalNodes>
            0 -1 179 -6.0125840827822685e-003</internalNodes>
          <leafValues>
            4.0081545710563660e-001 -1.5282902121543884e-001</leafValues></_>
        <_>
          <internalNodes>
            0 -1 188 -1.8569480162113905e-003</internalNodes>
          <leafValues>
            -7.8544521331787109e-001 7.3175072669982910e-002</leafValues></_>
        <_>
          <internalNodes>
            0 -1 27 -6.9612972438335419e-003</internalNodes>
          <leafValues>
            3.1966125965118408e-001 -1.7935125529766083e-001</leafValues></_>
        <_>
          <internalNodes>
            0 -1 171 -5.2361929556354880e-004</internalNodes>
          <leafValues>
            2.8522729873657227e-001 -1.7545095086097717e-001</leafValues></_>
        <_>
          <internalNodes>
            0 -1 112 2.0800330676138401e-003</internalNodes>
          <leafValues>
            -2.0678393542766571e-001 2.4502913653850555e-001</leafValues></_>
        <_>
          <internalNodes>
            0 -1 83 -3.8983770646154881e-003</internalNodes>
          <leafValues>
            3.0564948916435242e-001 -1.7999099195003510e-001</leafValues></_>
        <_>
          <internalNodes>
            0 -1 148 -1.8745735287666321e-003</internalNodes>
          <leafValues>
            -6.4756268262863159e-001 8.9853443205356598e-002</leafValues></_>
        <_>
          <internalNodes>
            0 -1 11 1.5979668125510216e-002</internalNodes>
          <leafValues>
            8.1900954246520996e-002 -5.6185662746429443e-001</leafValues></_>
        <_>
          <internalNodes>
            0 -1 57 -1.9194977357983589e-003</internalNodes>
          <leafValues>
            3.2275402545928955e-001 -1.8597513437271118e-001</leafValues></_>
        <_>
          <internalNodes>
            0 -1 44 1.2061265297234058e-003</internalNodes>
          <leafValues>
            -1.6941235959529877e-001 3.3422937989234924e-001</leafValues></_>
        <_>
          <internalNodes>
            0 -1 101 1.1636977433227003e-004</internalNodes>
          <leafValues>
            1.2346184998750687e-001 -4.4756662845611572e-001</leafValues></_></weakClassifiers></_></stages>
  <features>
    <_>
      <rects>
        <_>
          0 0 3 2 -1.</_>
        <_>
          1 0 1 2 3.</_></rects>
      <tilted>0</tilted></_>
    <_>
      <rects>
        <_>
          0 0 28 14 -1.</_>
        <_>
          14 0 14 14 2.</_></rects>
      <tilted>0</tilted></_>
    <_>
      <rects>
        <_>
          0 0 25 6 -1.</_>
        <_>
          0 3 25 3 2.</_></rects>
      <tilted>0</tilted></_>
    <_>
      <rects>
        <_>
          0 0 30 6 -1.</_>
        <_>
          0 3 30 3 2.</_></rects>
      <tilted>0</tilted></_>
    <_>
      <rects>
        <_>
          0 2 1 18 -1.</_>
        <_>
          0 11 1 9 2.</_></rects>
      <tilted>0</tilted></_>
    <_>
      <rects>
        <_>
          0 3 30 12 -1.</_>
        <_>
          15 3 15 12 2.</_></rects>
      <tilted>0</tilted></_>
    <_>
      <rects>
        <_>
          0 4 1 12 -1.</_>
        <_>
          0 7 1 6 2.</_></rects>
      <tilted>0</tilted></_>
    <_>
      <rects>
        <_>
          0 4 4 10 -1.</_>
        <_>
          2 4 2 10 2.</_></rects>
      <tilted>0</tilted></_>
    <_>
      <rects>
        <_>
          0 5 1 3 -1.</_>
        <_>
          0 6 1 1 3.</_></rects>
      <tilted>0</tilted></_>
    <_>
      <rects>
        <_>
          0 6 1 9 -1.</_>
        <_>
          0 9 1 3 3.</_></rects>
      <tilted>0</tilted></_>
    <_>
      <rects>
        <_>
          0 6 4 9 -1.</_>
        <_>
          2 6 2 9 2.</_></rects>
      <tilted>0</tilted></_>
    <_>
      <rects>
        <_>
          0 6 13 4 -1.</_>
        <_>
          0 8 13 2 2.</_></rects>
      <tilted>0</tilted></_>
    <_>
      <rects>
        <_>
          0 7 1 2 -1.</_>
        <_>
          0 8 1 1 2.</_></rects>
      <tilted>0</tilted></_>
    <_>
      <rects>
        <_>
          0 7 2 6 -1.</_>
        <_>
          0 9 2 2 3.</_></rects>
      <tilted>0</tilted></_>
    <_>
      <rects>
        <_>
          0 7 2 6 -1.</_>
        <_>
          0 10 2 3 2.</_></rects>
      <tilted>0</tilted></_>
    <_>
      <rects>
        <_>
          0 7 27 6 -1.</_>
        <_>
          9 9 9 2 9.</_></rects>
      <tilted>0</tilted></_>
    <_>
      <rects>
        <_>
          0 7 26 7 -1.</_>
        <_>
          13 7 13 7 2.</_></rects>
      <tilted>0</tilted></_>
    <_>
      <rects>
        <_>
          0 8 1 2 -1.</_>
        <_>
          0 9 1 1 2.</_></rects>
      <tilted>0</tilted></_>
    <_>
      <rects>
        <_>
          0 8 1 3 -1.</_>
        <_>
          0 9 1 1 3.</_></rects>
      <tilted>0</tilted></_>
    <_>
      <rects>
        <_>
          0 9 1 3 -1.</_>
        <_>
          0 10 1 1 3.</_></rects>
      <tilted>0</tilted></_>
    <_>
      <rects>
        <_>
          0 10 2 3 -1.</_>
        <_>
          0 11 2 1 3.</_></rects>
      <tilted>0</tilted></_>
    <_>
      <rects>
        <_>
          0 11 1 2 -1.</_>
        <_>
          0 12 1 1 2.</_></rects>
      <tilted>0</tilted></_>
    <_>
      <rects>
        <_>
          0 19 12 1 -1.</_>
        <_>
          4 19 4 1 3.</_></rects>
      <tilted>0</tilted></_>
    <_>
      <rects>
        <_>
          1 0 26 3 -1.</_>
        <_>
          1 1 26 1 3.</_></rects>
      <tilted>0</tilted></_>
    <_>
      <rects>
        <_>
          1 0 29 4 -1.</_>
        <_>
          1 1 29 2 2.</_></rects>
      <tilted>0</tilted></_>
    <_>
      <rects>
        <_>
          1 10 4 6 -1.</_>
        <_>
          2 10 2 6 2.</_></rects>
      <tilted>0</tilted></_>
    <_>
      <rects>
        <_>
          1 11 15 2 -1.</_>
        <_>
          6 11 5 2 3.</_></rects>
      <tilted>0</tilted></_>
    <_>
      <rects>
        <_>
          1 13 19 4 -1.</_>
        <_>
          1 14 19 2 2.</_></rects>
      <tilted>0</tilted></_>
    <_>
      <rects>
        <_>
          2 0 9 6 -1.</_>
        <_>
          2 3 9 3 2.</_></rects>
      <tilted>0</tilted></_>
    <_>
      <rects>
        <_>
          2 0 27 8 -1.</_>
        <_>
          2 4 27 4 2.</_></rects>
      <tilted>0</tilted></_>
    <_>
      <rects>
        <_>
          2 2 27 6 -1.</_>
        <_>
          2 4 27 2 3.</_></rects>
      <tilted>0</tilted></_>
    <_>
      <rects>
        <_>
          2 3 6 2 -1.</_>
        <_>
          2 3 6 1 2.</_></rects>
      <tilted>1</tilted></_>
    <_>
      <rects>
        <_>
          2 7 3 10 -1.</_>
        <_>
          3 7 1 10 3.</_></rects>
      <tilted>0</tilted></_>
    <_>
      <rects>
        <_>
          2 9 14 6 -1.</_>
        <_>
          2 12 14 3 2.</_></rects>
      <tilted>0</tilted></_>
    <_>
      <rects>
        <_>
          2 11 2 1 -1.</_>
        <_>
          3 11 1 1 2.</_></rects>
      <tilted>0</tilted></_>
    <_>
      <rects>
        <_>
          2 13 3 3 -1.</_>
        <_>
          3 14 1 1 9.</_></rects>
      <tilted>0</tilted></_>
    <_>
      <rects>
        <_>
          2 13 8 4 -1.</_>
        <_>
          2 13 4 2 2.</_>
        <_>
          6 15 4 2 2.</_></rects>
      <tilted>0</tilted></_>
    <_>
      <rects>
        <_>
          2 16 28 2 -1.</_>
        <_>
          2 17 28 1 2.</_></rects>
      <tilted>0</tilted></_>
    <_>
      <rects>
        <_>
          3 0 26 6 -1.</_>
        <_>
          3 2 26 2 3.</_></rects>
      <tilted>0</tilted></_>
    <_>
      <rects>
        <_>
          3 2 22 4 -1.</_>
        <_>
          3 3 22 2 2.</_></rects>
      <tilted>0</tilted></_>
    <_>
      <rects>
        <_>
          3 5 3 4 -1.</_>
        <_>
          4 5 1 4 3.</_></rects>
      <tilted>0</tilted></_>
    <_>
      <rects>
        <_>
          3 5 4 9 -1.</_>
        <_>
          4 5 2 9 2.</_></rects>
      <tilted>0</tilted></_>
    <_>
      <rects>
        <_>
          3 7 3 9 -1.</_>
        <_>
          4 7 1 9 3.</_></rects>
      <tilted>0</tilted></_>
    <_>
      <rects>
        <_>
          3 8 3 6 -1.</_>
        <_>
          4 8 1 6 3.</_></rects>
      <tilted>0</tilted></_>
    <_>
      <rects>
        <_>
          3 12 4 1 -1.</_>
        <_>
          4 13 2 1 2.</_></rects>
      <tilted>1</tilted></_>
    <_>
      <rects>
        <_>
          4 2 13 3 -1.</_>
        <_>
          4 3 13 1 3.</_></rects>
      <tilted>0</tilted></_>
    <_>
      <rects>
        <_>
          4 7 3 12 -1.</_>
        <_>
          5 11 1 4 9.</_></rects>
      <tilted>0</tilted></_>
    <_>
      <rects>
        <_>
          4 8 9 4 -1.</_>
        <_>
          7 8 3 4 3.</_></rects>
      <tilted>0</tilted></_>
    <_>
      <rects>
        <_>
          4 11 3 3 -1.</_>
        <_>
          5 11 1 3 3.</_></rects>
      <tilted>0</tilted></_>
    <_>
      <rects>
        <_>
          4 19 9 1 -1.</_>
        <_>
          7 19 3 1 3.</_></rects>
      <tilted>0</tilted></_>
    <_>
      <rects>
        <_>
          5 0 4 2 -1.</_>
        <_>
          6 0 2 2 2.</_></rects>
      <tilted>0</tilted></_>
    <_>
      <rects>
        <_>
          5 0 20 6 -1.</_>
        <_>
          5 2 20 2 3.</_></rects>
      <tilted>0</tilted></_>
    <_>
      <rects>
        <_>
          5 2 8 3 -1.</_>
        <_>
          5 3 8 1 3.</_></rects>
      <tilted>0</tilted></_>
    <_>
      <rects>
        <_>
          5 5 24 12 -1.</_>
        <_>
          13 9 8 4 9.</_></rects>
      <tilted>0</tilted></_>
    <_>
      <rects>
        <_>
          5 6 10 8 -1.</_>
        <_>
          5 10 10 4 2.</_></rects>
      <tilted>0</tilted></_>
    <_>
      <rects>
        <_>
          5 7 20 6 -1.</_>
        <_>
          15 7 10 6 2.</_></rects>
      <tilted>0</tilted></_>
    <_>
      <rects>
        <_>
          5 8 3 7 -1.</_>
        <_>
          6 8 1 7 3.</_></rects>
      <tilted>0</tilted></_>
    <_>
      <rects>
        <_>
          5 8 12 2 -1.</_>
        <_>
          5 8 6 1 2.</_>
        <_>
          11 9 6 1 2.</_></rects>
      <tilted>0</tilted></_>
    <_>
      <rects>
        <_>
          5 10 6 2 -1.</_>
        <_>
          5 10 3 1 2.</_>
        <_>
          8 11 3 1 2.</_></rects>
      <tilted>0</tilted></_>
    <_>
      <rects>
        <_>
          5 10 12 2 -1.</_>
        <_>
          5 10 6 1 2.</_>
        <_>
          11 11 6 1 2.</_></rects>
      <tilted>0</tilted></_>
    <_>
      <rects>
        <_>
          5 12 4 8 -1.</_>
        <_>
          5 12 2 4 2.</_>
        <_>
          7 16 2 4 2.</_></rects>
      <tilted>0</tilted></_>
    <_>
      <rects>
        <_>
          5 15 24 4 -1.</_>
        <_>
          5 17 24 2 2.</_></rects>
      <tilted>0</tilted></_>
    <_>
      <rects>
        <_>
          6 2 1 4 -1.</_>
        <_>
          6 4 1 2 2.</_></rects>
      <tilted>0</tilted></_>
    <_>
      <rects>
        <_>
          6 6 24 9 -1.</_>
        <_>
          14 9 8 3 9.</_></rects>
      <tilted>0</tilted></_>
    <_>
      <rects>
        <_>
          6 6 24 10 -1.</_>
        <_>
          6 11 24 5 2.</_></rects>
      <tilted>0</tilted></_>
    <_>
      <rects>
        <_>
          6 8 16 2 -1.</_>
        <_>
          14 8 8 2 2.</_></rects>
      <tilted>0</tilted></_>
    <_>
      <rects>
        <_>
          6 9 2 2 -1.</_>
        <_>
          6 9 1 1 2.</_>
        <_>
          7 10 1 1 2.</_></rects>
      <tilted>0</tilted></_>
    <_>
      <rects>
        <_>
          6 9 3 6 -1.</_>
        <_>
          7 11 1 2 9.</_></rects>
      <tilted>0</tilted></_>
    <_>
      <rects>
        <_>
          7 0 4 2 -1.</_>
        <_>
          8 0 2 2 2.</_></rects>
      <tilted>0</tilted></_>
    <_>
      <rects>
        <_>
          7 0 6 2 -1.</_>
        <_>
          7 1 6 1 2.</_></rects>
      <tilted>0</tilted></_>
    <_>
      <rects>
        <_>
          7 1 3 1 -1.</_>
        <_>
          8 1 1 1 3.</_></rects>
      <tilted>0</tilted></_>
    <_>
      <rects>
        <_>
          7 4 4 3 -1.</_>
        <_>
          7 5 4 1 3.</_></rects>
      <tilted>0</tilted></_>
    <_>
      <rects>
        <_>
          7 9 4 3 -1.</_>
        <_>
          9 9 2 3 2.</_></rects>
      <tilted>0</tilted></_>
    <_>
      <rects>
        <_>
          7 15 21 4 -1.</_>
        <_>
          7 16 21 2 2.</_></rects>
      <tilted>0</tilted></_>
    <_>
      <rects>
        <_>
          8 0 4 2 -1.</_>
        <_>
          9 1 2 2 2.</_></rects>
      <tilted>1</tilted></_>
    <_>
      <rects>
        <_>
          9 0 4 2 -1.</_>
        <_>
          10 0 2 2 2.</_></rects>
      <tilted>0</tilted></_>
    <_>
      <rects>
        <_>
          9 4 4 10 -1.</_>
        <_>
          10 4 2 10 2.</_></rects>
      <tilted>0</tilted></_>
    <_>
      <rects>
        <_>
          9 6 6 7 -1.</_>
        <_>
          12 6 3 7 2.</_></rects>
      <tilted>0</tilted></_>
    <_>
      <rects>
        <_>
          9 8 9 5 -1.</_>
        <_>
          12 8 3 5 3.</_></rects>
      <tilted>0</tilted></_>
    <_>
      <rects>
        <_>
          10 0 3 1 -1.</_>
        <_>
          11 0 1 1 3.</_></rects>
      <tilted>0</tilted></_>
    <_>
      <rects>
        <_>
          10 0 3 3 -1.</_>
        <_>
          11 0 1 3 3.</_></rects>
      <tilted>0</tilted></_>
    <_>
      <rects>
        <_>
          10 5 9 7 -1.</_>
        <_>
          13 5 3 7 3.</_></rects>
      <tilted>0</tilted></_>
    <_>
      <rects>
        <_>
          10 6 3 3 -1.</_>
        <_>
          11 6 1 3 3.</_></rects>
      <tilted>0</tilted></_>
    <_>
      <rects>
        <_>
          10 6 3 5 -1.</_>
        <_>
          11 6 1 5 3.</_></rects>
      <tilted>0</tilted></_>
    <_>
      <rects>
        <_>
          10 6 11 8 -1.</_>
        <_>
          10 10 11 4 2.</_></rects>
      <tilted>0</tilted></_>
    <_>
      <rects>
        <_>
          10 8 1 4 -1.</_>
        <_>
          10 9 1 2 2.</_></rects>
      <tilted>0</tilted></_>
    <_>
      <rects>
        <_>
          10 8 4 3 -1.</_>
        <_>
          11 8 2 3 2.</_></rects>
      <tilted>0</tilted></_>
    <_>
      <rects>
        <_>
          10 10 9 3 -1.</_>
        <_>
          13 10 3 3 3.</_></rects>
      <tilted>0</tilted></_>
    <_>
      <rects>
        <_>
          11 4 3 7 -1.</_>
        <_>
          12 4 1 7 3.</_></rects>
      <tilted>0</tilted></_>
    <_>
      <rects>
        <_>
          11 7 3 4 -1.</_>
        <_>
          12 7 1 4 3.</_></rects>
      <tilted>0</tilted></_>
    <_>
      <rects>
        <_>
          11 8 2 2 -1.</_>
        <_>
          11 8 2 1 2.</_></rects>
      <tilted>1</tilted></_>
    <_>
      <rects>
        <_>
          11 16 16 4 -1.</_>
        <_>
          11 17 16 2 2.</_></rects>
      <tilted>0</tilted></_>
    <_>
      <rects>
        <_>
          12 0 6 2 -1.</_>
        <_>
          14 0 2 2 3.</_></rects>
      <tilted>0</tilted></_>
    <_>
      <rects>
        <_>
          12 4 4 6 -1.</_>
        <_>
          14 4 2 6 2.</_></rects>
      <tilted>0</tilted></_>
    <_>
      <rects>
        <_>
          12 10 4 6 -1.</_>
        <_>
          12 13 4 3 2.</_></rects>
      <tilted>0</tilted></_>
    <_>
      <rects>
        <_>
          12 14 16 6 -1.</_>
        <_>
          12 16 16 2 3.</_></rects>
      <tilted>0</tilted></_>
    <_>
      <rects>
        <_>
          12 19 4 1 -1.</_>
        <_>
          13 19 2 1 2.</_></rects>
      <tilted>0</tilted></_>
    <_>
      <rects>
        <_>
          13 0 6 9 -1.</_>
        <_>
          15 3 2 3 9.</_></rects>
      <tilted>0</tilted></_>
    <_>
      <rects>
        <_>
          13 1 3 1 -1.</_>
        <_>
          14 1 1 1 3.</_></rects>
      <tilted>0</tilted></_>
    <_>
      <rects>
        <_>
          13 3 4 12 -1.</_>
        <_>
          13 6 4 6 2.</_></rects>
      <tilted>0</tilted></_>
    <_>
      <rects>
        <_>
          13 5 9 12 -1.</_>
        <_>
          13 11 9 6 2.</_></rects>
      <tilted>0</tilted></_>
    <_>
      <rects>
        <_>
          14 3 3 1 -1.</_>
        <_>
          15 3 1 1 3.</_></rects>
      <tilted>0</tilted></_>
    <_>
      <rects>
        <_>
          14 4 6 3 -1.</_>
        <_>
          16 4 2 3 3.</_></rects>
      <tilted>0</tilted></_>
    <_>
      <rects>
        <_>
          14 8 8 3 -1.</_>
        <_>
          16 8 4 3 2.</_></rects>
      <tilted>0</tilted></_>
    <_>
      <rects>
        <_>
          14 8 14 6 -1.</_>
        <_>
          14 11 14 3 2.</_></rects>
      <tilted>0</tilted></_>
    <_>
      <rects>
        <_>
          14 10 3 3 -1.</_>
        <_>
          14 11 3 1 3.</_></rects>
      <tilted>0</tilted></_>
    <_>
      <rects>
        <_>
          15 0 3 3 -1.</_>
        <_>
          16 0 1 3 3.</_></rects>
      <tilted>0</tilted></_>
    <_>
      <rects>
        <_>
          15 0 4 2 -1.</_>
        <_>
          15 0 4 1 2.</_></rects>
      <tilted>1</tilted></_>
    <_>
      <rects>
        <_>
          15 8 5 4 -1.</_>
        <_>
          15 9 5 2 2.</_></rects>
      <tilted>0</tilted></_>
    <_>
      <rects>
        <_>
          16 1 3 1 -1.</_>
        <_>
          17 1 1 1 3.</_></rects>
      <tilted>0</tilted></_>
    <_>
      <rects>
        <_>
          16 1 3 2 -1.</_>
        <_>
          17 1 1 2 3.</_></rects>
      <tilted>0</tilted></_>
    <_>
      <rects>
        <_>
          16 12 4 4 -1.</_>
        <_>
          15 13 4 2 2.</_></rects>
      <tilted>1</tilted></_>
    <_>
      <rects>
        <_>
          17 0 2 10 -1.</_>
        <_>
          17 0 1 10 2.</_></rects>
      <tilted>1</tilted></_>
    <_>
      <rects>
        <_>
          17 2 3 6 -1.</_>
        <_>
          18 4 1 2 9.</_></rects>
      <tilted>0</tilted></_>
    <_>
      <rects>
        <_>
          17 9 3 3 -1.</_>
        <_>
          17 10 3 1 3.</_></rects>
      <tilted>0</tilted></_>
    <_>
      <rects>
        <_>
          17 14 4 6 -1.</_>
        <_>
          17 16 4 2 3.</_></rects>
      <tilted>0</tilted></_>
    <_>
      <rects>
        <_>
          17 14 5 6 -1.</_>
        <_>
          17 16 5 2 3.</_></rects>
      <tilted>0</tilted></_>
    <_>
      <rects>
        <_>
          17 14 11 6 -1.</_>
        <_>
          17 17 11 3 2.</_></rects>
      <tilted>0</tilted></_>
    <_>
      <rects>
        <_>
          17 15 4 3 -1.</_>
        <_>
          17 16 4 1 3.</_></rects>
      <tilted>0</tilted></_>
    <_>
      <rects>
        <_>
          17 17 6 3 -1.</_>
        <_>
          17 18 6 1 3.</_></rects>
      <tilted>0</tilted></_>
    <_>
      <rects>
        <_>
          18 0 11 4 -1.</_>
        <_>
          18 1 11 2 2.</_></rects>
      <tilted>0</tilted></_>
    <_>
      <rects>
        <_>
          18 1 11 3 -1.</_>
        <_>
          17 2 11 1 3.</_></rects>
      <tilted>1</tilted></_>
    <_>
      <rects>
        <_>
          18 9 4 4 -1.</_>
        <_>
          18 9 2 2 2.</_>
        <_>
          20 11 2 2 2.</_></rects>
      <tilted>0</tilted></_>
    <_>
      <rects>
        <_>
          18 12 4 3 -1.</_>
        <_>
          19 12 2 3 2.</_></rects>
      <tilted>0</tilted></_>
    <_>
      <rects>
        <_>
          18 14 4 6 -1.</_>
        <_>
          18 17 4 3 2.</_></rects>
      <tilted>0</tilted></_>
    <_>
      <rects>
        <_>
          18 14 12 6 -1.</_>
        <_>
          18 17 12 3 2.</_></rects>
      <tilted>0</tilted></_>
    <_>
      <rects>
        <_>
          18 16 10 4 -1.</_>
        <_>
          18 17 10 2 2.</_></rects>
      <tilted>0</tilted></_>
    <_>
      <rects>
        <_>
          18 19 4 1 -1.</_>
        <_>
          19 19 2 1 2.</_></rects>
      <tilted>0</tilted></_>
    <_>
      <rects>
        <_>
          19 0 4 13 -1.</_>
        <_>
          20 0 2 13 2.</_></rects>
      <tilted>0</tilted></_>
    <_>
      <rects>
        <_>
          19 5 3 10 -1.</_>
        <_>
          20 5 1 10 3.</_></rects>
      <tilted>0</tilted></_>
    <_>
      <rects>
        <_>
          19 6 4 3 -1.</_>
        <_>
          20 6 2 3 2.</_></rects>
      <tilted>0</tilted></_>
    <_>
      <rects>
        <_>
          19 6 3 7 -1.</_>
        <_>
          20 6 1 7 3.</_></rects>
      <tilted>0</tilted></_>
    <_>
      <rects>
        <_>
          19 6 3 11 -1.</_>
        <_>
          20 6 1 11 3.</_></rects>
      <tilted>0</tilted></_>
    <_>
      <rects>
        <_>
          19 9 3 6 -1.</_>
        <_>
          20 9 1 6 3.</_></rects>
      <tilted>0</tilted></_>
    <_>
      <rects>
        <_>
          19 10 4 2 -1.</_>
        <_>
          21 10 2 2 2.</_></rects>
      <tilted>0</tilted></_>
    <_>
      <rects>
        <_>
          19 19 4 1 -1.</_>
        <_>
          20 19 2 1 2.</_></rects>
      <tilted>0</tilted></_>
    <_>
      <rects>
        <_>
          20 0 3 2 -1.</_>
        <_>
          21 0 1 2 3.</_></rects>
      <tilted>0</tilted></_>
    <_>
      <rects>
        <_>
          20 0 6 2 -1.</_>
        <_>
          22 0 2 2 3.</_></rects>
      <tilted>0</tilted></_>
    <_>
      <rects>
        <_>
          20 1 6 1 -1.</_>
        <_>
          22 1 2 1 3.</_></rects>
      <tilted>0</tilted></_>
    <_>
      <rects>
        <_>
          20 2 2 14 -1.</_>
        <_>
          20 2 1 7 2.</_>
        <_>
          21 9 1 7 2.</_></rects>
      <tilted>0</tilted></_>
    <_>
      <rects>
        <_>
          20 5 2 4 -1.</_>
        <_>
          20 5 1 2 2.</_>
        <_>
          21 7 1 2 2.</_></rects>
      <tilted>0</tilted></_>
    <_>
      <rects>
        <_>
          20 5 2 6 -1.</_>
        <_>
          21 5 1 6 2.</_></rects>
      <tilted>0</tilted></_>
    <_>
      <rects>
        <_>
          20 5 3 7 -1.</_>
        <_>
          21 5 1 7 3.</_></rects>
      <tilted>0</tilted></_>
    <_>
      <rects>
        <_>
          20 6 4 1 -1.</_>
        <_>
          21 6 2 1 2.</_></rects>
      <tilted>0</tilted></_>
    <_>
      <rects>
        <_>
          20 6 3 3 -1.</_>
        <_>
          21 6 1 3 3.</_></rects>
      <tilted>0</tilted></_>
    <_>
      <rects>
        <_>
          20 6 3 6 -1.</_>
        <_>
          21 6 1 6 3.</_></rects>
      <tilted>0</tilted></_>
    <_>
      <rects>
        <_>
          20 7 4 5 -1.</_>
        <_>
          21 7 2 5 2.</_></rects>
      <tilted>0</tilted></_>
    <_>
      <rects>
        <_>
          20 7 3 7 -1.</_>
        <_>
          21 7 1 7 3.</_></rects>
      <tilted>0</tilted></_>
    <_>
      <rects>
        <_>
          20 7 2 2 -1.</_>
        <_>
          20 8 2 1 2.</_></rects>
      <tilted>0</tilted></_>
    <_>
      <rects>
        <_>
          20 9 3 8 -1.</_>
        <_>
          21 9 1 8 3.</_></rects>
      <tilted>0</tilted></_>
    <_>
      <rects>
        <_>
          20 10 3 1 -1.</_>
        <_>
          21 10 1 1 3.</_></rects>
      <tilted>0</tilted></_>
    <_>
      <rects>
        <_>
          20 11 3 2 -1.</_>
        <_>
          21 12 1 2 3.</_></rects>
      <tilted>1</tilted></_>
    <_>
      <rects>
        <_>
          20 19 6 1 -1.</_>
        <_>
          22 19 2 1 3.</_></rects>
      <tilted>0</tilted></_>
    <_>
      <rects>
        <_>
          21 3 8 4 -1.</_>
        <_>
          23 5 4 4 2.</_></rects>
      <tilted>1</tilted></_>
    <_>
      <rects>
        <_>
          21 5 3 6 -1.</_>
        <_>
          22 5 1 6 3.</_></rects>
      <tilted>0</tilted></_>
    <_>
      <rects>
        <_>
          21 6 4 11 -1.</_>
        <_>
          22 6 2 11 2.</_></rects>
      <tilted>0</tilted></_>
    <_>
      <rects>
        <_>
          21 8 3 3 -1.</_>
        <_>
          22 8 1 3 3.</_></rects>
      <tilted>0</tilted></_>
    <_>
      <rects>
        <_>
          21 10 2 1 -1.</_>
        <_>
          22 10 1 1 2.</_></rects>
      <tilted>0</tilted></_>
    <_>
      <rects>
        <_>
          21 12 3 1 -1.</_>
        <_>
          22 12 1 1 3.</_></rects>
      <tilted>0</tilted></_>
    <_>
      <rects>
        <_>
          21 18 4 1 -1.</_>
        <_>
          22 18 2 1 2.</_></rects>
      <tilted>0</tilted></_>
    <_>
      <rects>
        <_>
          21 19 4 1 -1.</_>
        <_>
          22 19 2 1 2.</_></rects>
      <tilted>0</tilted></_>
    <_>
      <rects>
        <_>
          22 6 8 3 -1.</_>
        <_>
          22 6 4 3 2.</_></rects>
      <tilted>1</tilted></_>
    <_>
      <rects>
        <_>
          22 10 3 1 -1.</_>
        <_>
          23 10 1 1 3.</_></rects>
      <tilted>0</tilted></_>
    <_>
      <rects>
        <_>
          23 10 6 6 -1.</_>
        <_>
          25 12 2 2 9.</_></rects>
      <tilted>0</tilted></_>
    <_>
      <rects>
        <_>
          23 10 7 3 -1.</_>
        <_>
          23 11 7 1 3.</_></rects>
      <tilted>0</tilted></_>
    <_>
      <rects>
        <_>
          24 9 2 2 -1.</_>
        <_>
          24 9 1 1 2.</_>
        <_>
          25 10 1 1 2.</_></rects>
      <tilted>0</tilted></_>
    <_>
      <rects>
        <_>
          24 14 6 6 -1.</_>
        <_>
          24 14 3 3 2.</_>
        <_>
          27 17 3 3 2.</_></rects>
      <tilted>0</tilted></_>
    <_>
      <rects>
        <_>
          24 15 4 3 -1.</_>
        <_>
          24 16 4 1 3.</_></rects>
      <tilted>0</tilted></_>
    <_>
      <rects>
        <_>
          25 5 3 6 -1.</_>
        <_>
          26 7 1 2 9.</_></rects>
      <tilted>0</tilted></_>
    <_>
      <rects>
        <_>
          25 7 4 8 -1.</_>
        <_>
          25 11 4 4 2.</_></rects>
      <tilted>0</tilted></_>
    <_>
      <rects>
        <_>
          25 11 4 5 -1.</_>
        <_>
          26 11 2 5 2.</_></rects>
      <tilted>0</tilted></_>
    <_>
      <rects>
        <_>
          25 12 3 1 -1.</_>
        <_>
          26 12 1 1 3.</_></rects>
      <tilted>0</tilted></_>
    <_>
      <rects>
        <_>
          25 18 3 2 -1.</_>
        <_>
          26 18 1 2 3.</_></rects>
      <tilted>0</tilted></_>
    <_>
      <rects>
        <_>
          26 0 1 18 -1.</_>
        <_>
          26 0 1 9 2.</_></rects>
      <tilted>1</tilted></_>
    <_>
      <rects>
        <_>
          26 2 4 14 -1.</_>
        <_>
          28 2 2 14 2.</_></rects>
      <tilted>0</tilted></_>
    <_>
      <rects>
        <_>
          26 4 4 10 -1.</_>
        <_>
          27 4 2 10 2.</_></rects>
      <tilted>0</tilted></_>
    <_>
      <rects>
        <_>
          26 6 4 8 -1.</_>
        <_>
          27 6 2 8 2.</_></rects>
      <tilted>0</tilted></_>
    <_>
      <rects>
        <_>
          26 7 3 6 -1.</_>
        <_>
          27 7 1 6 3.</_></rects>
      <tilted>0</tilted></_>
    <_>
      <rects>
        <_>
          26 8 4 6 -1.</_>
        <_>
          27 8 2 6 2.</_></rects>
      <tilted>0</tilted></_>
    <_>
      <rects>
        <_>
          26 12 3 3 -1.</_>
        <_>
          27 12 1 3 3.</_></rects>
      <tilted>0</tilted></_>
    <_>
      <rects>
        <_>
          26 13 3 1 -1.</_>
        <_>
          27 13 1 1 3.</_></rects>
      <tilted>0</tilted></_>
    <_>
      <rects>
        <_>
          26 13 3 1 -1.</_>
        <_>
          27 14 1 1 3.</_></rects>
      <tilted>1</tilted></_>
    <_>
      <rects>
        <_>
          27 9 2 8 -1.</_>
        <_>
          28 9 1 8 2.</_></rects>
      <tilted>0</tilted></_>
    <_>
      <rects>
        <_>
          27 12 3 3 -1.</_>
        <_>
          28 13 1 3 3.</_></rects>
      <tilted>1</tilted></_>
    <_>
      <rects>
        <_>
          27 14 3 1 -1.</_>
        <_>
          28 14 1 1 3.</_></rects>
      <tilted>0</tilted></_>
    <_>
      <rects>
        <_>
          28 6 2 8 -1.</_>
        <_>
          28 8 2 4 2.</_></rects>
      <tilted>0</tilted></_>
    <_>
      <rects>
        <_>
          28 7 2 3 -1.</_>
        <_>
          28 8 2 1 3.</_></rects>
      <tilted>0</tilted></_>
    <_>
      <rects>
        <_>
          28 11 2 4 -1.</_>
        <_>
          28 12 2 2 2.</_></rects>
      <tilted>0</tilted></_>
    <_>
      <rects>
        <_>
          29 6 1 4 -1.</_>
        <_>
          29 7 1 2 2.</_></rects>
      <tilted>0</tilted></_>
    <_>
      <rects>
        <_>
          29 6 1 8 -1.</_>
        <_>
          29 8 1 4 2.</_></rects>
      <tilted>0</tilted></_>
    <_>
      <rects>
        <_>
          29 7 1 3 -1.</_>
        <_>
          29 8 1 1 3.</_></rects>
      <tilted>0</tilted></_>
    <_>
      <rects>
        <_>
          29 8 1 6 -1.</_>
        <_>
          29 10 1 2 3.</_></rects>
      <tilted>0</tilted></_></features></cascade>
</opencv_storage>
