<?xml version="1.0"?>
<opencv_storage>
<stage11>
  <maxWeakCount>16</maxWeakCount>
  <stageThreshold>-1.2034088373184204e+000</stageThreshold>
  <weakClassifiers>
    <_>
      <internalNodes>
        0 -1 222944 -1.5505674295127392e-002</internalNodes>
      <leafValues>
        4.7305390238761902e-001 -4.1867786645889282e-001</leafValues></_>
    <_>
      <internalNodes>
        0 -1 48052 -7.4485102668404579e-003</internalNodes>
      <leafValues>
        3.7410363554954529e-001 -2.7701100707054138e-001</leafValues></_>
    <_>
      <internalNodes>
        0 -1 161769 -1.7692778259515762e-002</internalNodes>
      <leafValues>
        5.1495194435119629e-001 -1.7858581244945526e-001</leafValues></_>
    <_>
      <internalNodes>
        0 -1 266559 -7.0499593857675791e-004</internalNodes>
      <leafValues>
        3.6121898889541626e-001 -2.1644648909568787e-001</leafValues></_>
    <_>
      <internalNodes>
        0 -1 79199 2.5309395790100098e-001</internalNodes>
      <leafValues>
        1.1244853585958481e-001 -7.3357588052749634e-001</leafValues></_>
    <_>
      <internalNodes>
        0 -1 105101 -2.6541608385741711e-003</internalNodes>
      <leafValues>
        4.7392234206199646e-001 -1.6552203893661499e-001</leafValues></_>
    <_>
      <internalNodes>
        0 -1 52489 -1.1947997845709324e-002</internalNodes>
      <leafValues>
        5.2968466281890869e-001 -1.4135606586933136e-001</leafValues></_>
    <_>
      <internalNodes>
        0 -1 93983 -1.4182710647583008e-001</internalNodes>
      <leafValues>
        -7.3908156156539917e-001 9.9353060126304626e-002</leafValues></_>
    <_>
      <internalNodes>
        0 -1 270173 -1.2246794067323208e-003</internalNodes>
      <leafValues>
        -6.9959336519241333e-001 1.0719905048608780e-001</leafValues></_>
    <_>
      <internalNodes>
        0 -1 229471 -1.0199912823736668e-002</internalNodes>
      <leafValues>
        6.9332271814346313e-001 -1.2118802219629288e-001</leafValues></_>
    <_>
      <internalNodes>
        0 -1 15068 6.8140816874802113e-003</internalNodes>
      <leafValues>
        1.0421968251466751e-001 -7.4441599845886230e-001</leafValues></_>
    <_>
      <internalNodes>
        0 -1 112946 -3.7180041545070708e-004</internalNodes>
      <leafValues>
        2.7089253067970276e-001 -2.6703429222106934e-001</leafValues></_>
    <_>
      <internalNodes>
        0 -1 215238 -2.5481744669377804e-003</internalNodes>
      <leafValues>
        2.7475735545158386e-001 -2.6180872321128845e-001</leafValues></_>
    <_>
      <internalNodes>
        0 -1 261276 -9.4675244763493538e-003</internalNodes>
      <leafValues>
        7.1778798103332520e-001 -1.0624869167804718e-001</leafValues></_>
    <_>
      <internalNodes>
        0 -1 275246 9.3584071146324277e-004</internalNodes>
      <leafValues>
        -1.6880391538143158e-001 4.6537667512893677e-001</leafValues></_>
    <_>
      <internalNodes>
        0 -1 8781 3.2298699952661991e-003</internalNodes>
      <leafValues>
        1.1838834732770920e-001 -6.1650437116622925e-001</leafValues></_></weakClassifiers></stage11>
</opencv_storage>
